digraph Tree {
node [shape=box] ;
0 [label="PPE <= 0.134\nentropy = 0.748\nsamples = 136\nvalue = [29, 107]"] ;
1 [label="MDVP:Fhi(Hz) <= 228.85\nentropy = 0.837\nsamples = 30\nvalue = [22, 8]"] ;
0 -> 1 [labeldistance=2.5, labelangle=45, headlabel="True"] ;
2 [label="RPDE <= 0.459\nentropy = 1.0\nsamples = 16\nvalue = [8, 8]"] ;
1 -> 2 ;
3 [label="D2 <= 1.869\nentropy = 0.722\nsamples = 10\nvalue = [2, 8]"] ;
2 -> 3 ;
4 [label="entropy = 0.0\nsamples = 2\nvalue = [2, 0]"] ;
3 -> 4 ;
5 [label="entropy = 0.0\nsamples = 8\nvalue = [0, 8]"] ;
3 -> 5 ;
6 [label="entropy = 0.0\nsamples = 6\nvalue = [6, 0]"] ;
2 -> 6 ;
7 [label="entropy = 0.0\nsamples = 14\nvalue = [14, 0]"] ;
1 -> 7 ;
8 [label="Shimmer:APQ3 <= 0.009\nentropy = 0.351\nsamples = 106\nvalue = [7, 99]"] ;
0 -> 8 [labeldistance=2.5, labelangle=-45, headlabel="False"] ;
9 [label="MDVP:Fo(Hz) <= 117.986\nentropy = 0.845\nsamples = 22\nvalue = [6, 16]"] ;
8 -> 9 ;
10 [label="HNR <= 26.721\nentropy = 0.592\nsamples = 7\nvalue = [6, 1]"] ;
9 -> 10 ;
11 [label="entropy = 0.0\nsamples = 6\nvalue = [6, 0]"] ;
10 -> 11 ;
12 [label="entropy = 0.0\nsamples = 1\nvalue = [0, 1]"] ;
10 -> 12 ;
13 [label="entropy = 0.0\nsamples = 15\nvalue = [0, 15]"] ;
9 -> 13 ;
14 [label="MDVP:Fo(Hz) <= 209.018\nentropy = 0.093\nsamples = 84\nvalue = [1, 83]"] ;
8 -> 14 ;
15 [label="entropy = 0.0\nsamples = 83\nvalue = [0, 83]"] ;
14 -> 15 ;
16 [label="entropy = 0.0\nsamples = 1\nvalue = [1, 0]"] ;
14 -> 16 ;
}